[
["index.html", "Quickstart", " Quickstart As a 30-second introductory example, we will train a decision tree model on the first 120 rows of iris data set and make predictions on the final 30, measuring the accuracy of the trained model. library(mlr3) task = tsk(&quot;iris&quot;) learner = lrn(&quot;classif.rpart&quot;) # train a model of this learner for a subset of the task learner$train(task, row_ids = 1:120) # this is what the decision tree looks like learner$model ## n= 120 ## ## node), split, n, loss, yval, (yprob) ## * denotes terminal node ## ## 1) root 120 70 setosa (0.41667 0.41667 0.16667) ## 2) Petal.Length&lt; 2.45 50 0 setosa (1.00000 0.00000 0.00000) * ## 3) Petal.Length&gt;=2.45 70 20 versicolor (0.00000 0.71429 0.28571) ## 6) Petal.Length&lt; 4.95 49 1 versicolor (0.00000 0.97959 0.02041) * ## 7) Petal.Length&gt;=4.95 21 2 virginica (0.00000 0.09524 0.90476) * predictions = learner$predict(task, row_ids = 121:150) predictions ## &lt;PredictionClassif&gt; for 30 observations: ## row_id truth response ## 121 virginica virginica ## 122 virginica versicolor ## 123 virginica virginica ## --- ## 148 virginica virginica ## 149 virginica virginica ## 150 virginica virginica # accuracy of our model on the test set of the final 30 rows predictions$score(msr(&quot;classif.acc&quot;)) ## classif.acc ## 0.8333 More examples can be found in the mlr3gallery, a collection of use cases and examples. "],
["introduction-and-overview.html", "1 Introduction and Overview", " 1 Introduction and Overview The mlr3 (Lang et al. 2019) package and ecosystem provide a generic, object-oriented, and extensible framework for classification, regression, survival analysis, and other machine learning tasks for the R language (R Core Team 2019). We do not implement any learners ourselves, but provide a unified interface to many existing learners in R. This unified interface provides functionality to extend and combine existing learners, intelligently select and tune the most appropriate technique for a task, and perform large-scale comparisons that enable meta-learning. Examples of this advanced functionality include hyperparameter tuning, feature selection, and ensemble construction. Parallelization of many operations is natively supported. Target Audience mlr3 provides a domain-specific language for machine learning in R. We target both practitioners who want to quickly apply machine learning algorithms and researchers who want to implement, benchmark, and compare their new methods in a structured environment. The package is a complete rewrite of an earlier version of mlr that leverages many years of experience to provide a state-of-the-art system that is easy to use and extend. It is intended for users who have basic knowledge of machine learning and R and who are interested in complex projects that use advanced functionality as well as one-liners to quickly prototype specific tasks. Why a Rewrite? mlr (Bischl et al. 2016) was first released to CRAN in 2013, with the core design and architecture dating back much further. Over time, the addition of many features has led to a considerably more complex design that made it harder to build, maintain, and extend than we had hoped for. With hindsight, we saw that some of the design and architecture choices in mlr made it difficult to support new features, in particular with respect to pipelines. Furthermore, the R ecosystem as well as helpful packages such as data.table have undergone major changes in the meantime. It would have been nearly impossible to integrate all of these changes into the original design of mlr. Instead, we decided to start working on a reimplementation in 2018, which resulted in the first release of mlr3 on CRAN in July 2019. The new design and the integration of further and newly developed R packages (R6, future, data.table) makes mlr3 much easier to use, maintain, and more efficient compared to mlr. Design Principles We follow these general design principles in the mlr3 package and ecosystem. Backend over frontend. Most packages of the mlr3 ecosystem focus on processing and transforming data, applying machine learning algorithms, and computing results. We do not provide graphical user interfaces (GUIs); visualizations of data and results are provided in extra packages. Embrace R6 for a clean, object-oriented design, object state-changes, and reference semantics. Embrace data.table for fast and convenient data frame computations. Unify container and result classes as much as possible and provide result data in data.tables. This considerably simplifies the API and allows easy selection and “split-apply-combine” (aggregation) operations. We combine data.table and R6 to place references to non-atomic and compound objects in tables and make heavy use of list columns. Defensive programming and type safety. All user input is checked with checkmate (Lang 2017). Return types are documented, and mechanisms popular in base R which “simplify” the result unpredictably (e.g., sapply() or the drop argument in [.data.frame) are avoided. Be light on dependencies. One of the main maintenance burdens for mlr was to keep up with changing learner interfaces and behavior of the many packages it depended on. We require far fewer packages in mlr3 to make installation and maintenance easier. mlr3 requires the following packages: backports: Ensures backward compatibility with older R releases. Developed by members of the mlr3 team. checkmate: Fast argument checks. Developed by members of the mlr3 team. mlr3misc: Miscellaneous functions used in multiple mlr3 extension packages. Developed by the mlr3 team. mlr3measures: Performance measures for classification and regression. Developed by members of the mlr3 team. paradox: Descriptions of parameters and parameter sets. Developed by the mlr3 team. R6: Reference class objects. data.table: Extension of R’s data.frame. digest: Hash digests. uuid: Unique string identifiers. lgr: Logging facility. mlbench: A collection of machine learning data sets. None of these packages adds any extra recursive dependencies to mlr3. mlr3 provides additional functionality through extra packages: For parallelization, mlr3 utilizes the future and future.apply packages. To capture output, warnings, and exceptions, evaluate and callr can be used. References "],
["basics.html", "2 Basics", " 2 Basics This chapter will teach you the essential building blocks, R6 classes, and operations of mlr3 for machine learning. A typical machine learning workflow looks like this: The data, which mlr3 encapsulates in tasks, is split into non-overlapping training and test sets. We are interested in models that generalize to new data rather than just memorizing the training data, and separate test data allows to objectively evaluate models with respect to that. The training data is given to a machine learning algorithm, which we call a learner in mlr3. The learner uses the training data to build a model of the relationship of the input features to the output target values. This model is then used to produce predictions on the test data, which are compared to the ground truth values to assess the quality of the model. mlr3 offers a number of different measures to quantify how well a model performs based on the difference between predicted and actual values. Usually this measure is a numeric score. The process of splitting up data into training and test sets, building a model, and evaluating it may be repeated several times, resampling different training and test sets from the original data each time. Multiple resampling iterations allow us to get a better, more generalizable performance estimate for a particular type of model as it is tested under different conditions and less likely to get lucky or unlucky because of a particular way the data was resampled. In many cases, this simple workflow is not sufficient to deal with real-world data, which may require normalization, imputation of missing values, or feature selection. We will cover more complex workflows that allow to do this and even more later in the book. This chapter covers the following subtopics: Tasks Tasks encapsulate the data with meta-information, such as the name of the prediction target column. We cover how to: access predefined tasks, specify a task type, create a task, work with a task’s API, assign roles to rows and columns of a task, implement task mutators, and retrieve the data that is stored in a task. Learners Learners encapsulate machine learning algorithms to train models and make predictions for a task. They are provided by R and other packages. We cover how to: access the set of classification and regression learners that come with mlr3 and retrieve a specific learner, access the set of hyperparameter values of a learner and modify them. How to modify and extend learners is covered in a supplemental advanced technical section. Train and predict The section on the train and predict methods illustrates how to use tasks and learners to train a model and make predictions on a new data set. In particular, we cover how to: set up tasks and learners properly, set up train and test splits for a task, train the learner on the training set to produce a model, generate predictions on the test set, and assess the performance of the model by comparing predicted and actual values. Resampling A resampling is a method to create training and test splits. We cover how to access and select resampling strategies, instantiate the split into training and test sets by applying the resampling, and execute the resampling to obtain results. Additional information on resampling can be found in the section about nested resampling and in the chapter on model optimization. Benchmarking Benchmarking is used to compare the performance of different models, for example models trained with different learners, on different tasks, or with different resampling methods. We cover how to create a benchmarking design, execute a design and aggregate results, and convert benchmarking objects to resample objects. Binary classification Binary classification is a special case of classification where the target variable to predict has only two possible values. In this case, additional considerations apply; in particular: ROC curves and the threshold where to predict one class versus the other, and threshold tuning (WIP). Before we get into the details of how to use mlr3 for machine learning, we give a brief introduction to R6 as it is a relatively new part of R. mlr3 heavily relies on R6 and all basic building blocks it provides are R6 classes: tasks, learners, measures, and resamplings. "],
["r6.html", "2.1 Quick R6 Intro for Beginners", " 2.1 Quick R6 Intro for Beginners R6 is one of R’s more recent dialects for object-oriented programming (OO). It addresses shortcomings of earlier OO implementations in R, such as S3, which we used in mlr. If you have done any object-oriented programming before, R6 should feel familiar. We focus on the parts of R6 that you need to know to use mlr3 here. Objects are created by calling the constructor of an R6Class() object, specifically the $new() method. For example, foo = Foo$new(bar = 1) creates a new object of class Foo, setting the bar argument of the constructor to 1. Classes have mutable state, which is encapsulated in their fields, which can be accessed through the dollar operator. We can access the bar value in the Foo class through foo$bar and set its value by assigning the field, e.g. foo$bar = 2. In addition to fields, objects expose methods that may allow to inspect the object’s state, retrieve information, or perform an action that may change the internal state of the object. For example, the $train method of a learner changes the internal state of the learner by building and storing a trained model, which can then be used to make predictions given data. Objects can have public and private fields and methods. In mlr3, you can only access the public variables and methods. Private fields and methods are only relevant to change or extend mlr3. R6 variables are references to objects rather then the actual objects, which are stored in an environment. For example foo2 = foo does not create a copy of foo in foo2, but another reference to the same actual object. Setting foo$bar = 3 will also change foo2$bar to 3 and vice versa. To copy an object, use the $clone() method and the deep = TRUE argument for nested objects, for example foo2 = foo$clone(deep = TRUE). Here is an overview of the extension packages of mlr: For further information see wiki for short descriptions and links to the respective repositories. For more details on R6, have a look at the R6 vignettes. "],
["tasks.html", "2.2 Tasks", " 2.2 Tasks Tasks are objects that contain the data and additional meta-data for a machine learning problem. The meta-data is for example the name of the target variable (the prediction) for supervised machine learning problems, or the type of the dataset (e.g. a spatial or survival). This information is used for specific operations that can be performed on a task. 2.2.1 Task Types To create a task from a data.frame() or data.table() object, the task type needs to be specified: Classification Task: The target is a label (stored as character()orfactor()) with only few distinct values. → mlr3::TaskClassif Regression Task: The target is a numeric quantity (stored as integer() or double()). → mlr3::TaskRegr Survival Task: The target is the (right-censored) time to an event. → mlr3proba::TaskSurv in add-on package mlr3proba Ordinal Regression Task: The target is ordinal. → TaskOrdinal in add-on package mlr3ordinal Cluster Task: An unsupervised task type; there is no target and the aim is to identify similar groups within the feature space. → Not yet implemented Spatial Task: Observations in the task have spatio-temporal information (e.g. coordinates). → Not yet implemented, but started in add-on package mlr3spatiotemporal 2.2.2 Task Creation As an example, we will create a regression task using the mtcars data set from the package datasets and predict the target &quot;mpg&quot; (miles per gallon). We only consider the first two features in the dataset for brevity. First, we load and prepare the data. data(&quot;mtcars&quot;, package = &quot;datasets&quot;) data = mtcars[, 1:3] str(data) ## &#39;data.frame&#39;: 32 obs. of 3 variables: ## $ mpg : num 21 21 22.8 21.4 18.7 18.1 14.3 24.4 22.8 19.2 ... ## $ cyl : num 6 6 4 6 8 6 8 4 4 6 ... ## $ disp: num 160 160 108 258 360 ... Next, we create the task using the constructor for a regression task object (TaskRegr$new) and give the following information: id: An arbitrary identifier for the task, used in plots and summaries. backend: This parameter allows fine-grained control over how data is accessed. Here, we simply provide the dataset which is automatically converted to a DataBackendDataTable. Alternatively, we could also construct a DataBackend manually. target: The name of the target column for the regression problem. library(&quot;mlr3&quot;) task_mtcars = TaskRegr$new(id = &quot;cars&quot;, backend = data, target = &quot;mpg&quot;) print(task_mtcars) ## &lt;TaskRegr:cars&gt; (32 x 3) ## * Target: mpg ## * Properties: - ## * Features (2): ## - dbl (2): cyl, disp The print() method gives a short summary of the task: It has 32 observations and 3 columns, of which 2 are features. We can also plot the task using the mlr3viz package, which gives a graphical summary of its properties: library(&quot;mlr3viz&quot;) autoplot(task_mtcars, type = &quot;pairs&quot;) ## Registered S3 method overwritten by &#39;GGally&#39;: ## method from ## +.gg ggplot2 2.2.3 Predefined tasks mlr3 ships with a few predefined machine learning tasks. All tasks are stored in an R6 Dictionary (a key-value store) named mlr_tasks. Printing it gives the keys (the names of the datasets): mlr_tasks ## &lt;DictionaryTask&gt; with 9 stored values ## Keys: boston_housing, german_credit, iris, mtcars, pima, sonar, spam, ## wine, zoo We can get a more informative summary of the example tasks by converting the dictionary to a data.table() object: library(&quot;data.table&quot;) as.data.table(mlr_tasks) ## # A tibble: 9 x 11 ## key task_type nrow ncol lgl int dbl chr fct ord pxc ## &lt;chr&gt; &lt;chr&gt; &lt;int&gt; &lt;int&gt; &lt;int&gt; &lt;int&gt; &lt;int&gt; &lt;int&gt; &lt;int&gt; &lt;int&gt; &lt;int&gt; ## 1 boston_housing regr 506 19 0 3 13 0 2 0 0 ## 2 german_credit classif 1000 21 0 0 7 0 12 1 0 ## 3 iris classif 150 5 0 0 4 0 0 0 0 ## 4 mtcars regr 32 11 0 0 10 0 0 0 0 ## 5 pima classif 768 9 0 0 8 0 0 0 0 ## 6 sonar classif 208 61 0 0 60 0 0 0 0 ## 7 spam classif 4601 58 0 0 57 0 0 0 0 ## 8 wine classif 178 14 0 2 11 0 0 0 0 ## 9 zoo classif 101 17 15 1 0 0 0 0 0 In the above display, the columns “lgl” (logical), “int” (integer), “dbl” (double), “chr” (character), “fct” (factor) and “ord” (ordinal) display the number of features (or columns) in the dataset with the corresponding datatype. To get a task from the dictionary, one can use the $get() method from the mlr_tasks class and assign the return value to a new object. For example, to use the iris data set for classification: task_iris = mlr_tasks$get(&quot;iris&quot;) print(task_iris) ## &lt;TaskClassif:iris&gt; (150 x 5) ## * Target: Species ## * Properties: multiclass ## * Features (4): ## - dbl (4): Petal.Length, Petal.Width, Sepal.Length, Sepal.Width Alternatively, you can also use the convenience function tsk(), which also constructs a task from the dictionary. tsk(&quot;iris&quot;) ## &lt;TaskClassif:iris&gt; (150 x 5) ## * Target: Species ## * Properties: multiclass ## * Features (4): ## - dbl (4): Petal.Length, Petal.Width, Sepal.Length, Sepal.Width 2.2.4 Task API All task properties and characteristics can be queried using the task’s public fields and methods (see Task). Methods are also used to change the behavior of the task. 2.2.4.1 Retrieving Data The data stored in a task can be retrieved directly from fields, for example: task_iris$nrow ## [1] 150 task_iris$ncol ## [1] 5 More information can be obtained through methods of the object, for example: task_iris$data() ## # A tibble: 150 x 5 ## Species Petal.Length Petal.Width Sepal.Length Sepal.Width ## &lt;fct&gt; &lt;dbl&gt; &lt;dbl&gt; &lt;dbl&gt; &lt;dbl&gt; ## 1 setosa 1.4 0.2 5.1 3.5 ## 2 setosa 1.4 0.2 4.9 3 ## 3 setosa 1.3 0.2 4.7 3.2 ## 4 setosa 1.5 0.2 4.6 3.1 ## 5 setosa 1.4 0.2 5 3.6 ## 6 setosa 1.7 0.4 5.4 3.9 ## 7 setosa 1.4 0.3 4.6 3.4 ## 8 setosa 1.5 0.2 5 3.4 ## 9 setosa 1.4 0.2 4.4 2.9 ## 10 setosa 1.5 0.1 4.9 3.1 ## # … with 140 more rows In mlr3, each row (observation) has a unique identifier, stored as an integer(). These can be passed as arguments to the $data() method to select specific rows: head(task_iris$row_ids) ## [1] 1 2 3 4 5 6 # retrieve data for rows with ids 1, 51, and 101 task_iris$data(rows = c(1, 51, 101)) ## # A tibble: 3 x 5 ## Species Petal.Length Petal.Width Sepal.Length Sepal.Width ## &lt;fct&gt; &lt;dbl&gt; &lt;dbl&gt; &lt;dbl&gt; &lt;dbl&gt; ## 1 setosa 1.4 0.2 5.1 3.5 ## 2 versicolor 4.7 1.4 7 3.2 ## 3 virginica 6 2.5 6.3 3.3 Similarly, target and feature columns also have unique identifiers, i.e. names. These names are stored in the public slots $feature_names and $target_names. Here “target” refers to the variable we want to predict and “feature” to the predictors for the task. task_iris$feature_names ## [1] &quot;Petal.Length&quot; &quot;Petal.Width&quot; &quot;Sepal.Length&quot; &quot;Sepal.Width&quot; task_iris$target_names ## [1] &quot;Species&quot; The row_ids and column names can be combined when selecting a subset of the data: # retrieve data for rows 1, 51, and 101 and only select column &quot;Species&quot; task_iris$data(rows = c(1, 51, 101), cols = &quot;Species&quot;) ## # A tibble: 3 x 1 ## Species ## &lt;fct&gt; ## 1 setosa ## 2 versicolor ## 3 virginica To extract the complete data from the task, one can simply convert it to a data.table: summary(as.data.table(task_iris)) ## Species Petal.Length Petal.Width Sepal.Length Sepal.Width ## setosa :50 Min. :1.00 Min. :0.1 Min. :4.30 Min. :2.00 ## versicolor:50 1st Qu.:1.60 1st Qu.:0.3 1st Qu.:5.10 1st Qu.:2.80 ## virginica :50 Median :4.35 Median :1.3 Median :5.80 Median :3.00 ## Mean :3.76 Mean :1.2 Mean :5.84 Mean :3.06 ## 3rd Qu.:5.10 3rd Qu.:1.8 3rd Qu.:6.40 3rd Qu.:3.30 ## Max. :6.90 Max. :2.5 Max. :7.90 Max. :4.40 2.2.4.2 Roles (Rows and Columns) It is possible to assign roles to rows and columns. These roles affect the behavior of the task for different operations. Furthermore, these roles provide additional meta-data for it. For example, the previously-constructed mtcars task has the following column roles: print(task_mtcars$col_roles) ## $feature ## [1] &quot;cyl&quot; &quot;disp&quot; ## ## $target ## [1] &quot;mpg&quot; ## ## $name ## character(0) ## ## $order ## character(0) ## ## $stratum ## character(0) ## ## $group ## character(0) ## ## $weight ## character(0) To add the row names of mtcars as an additional feature, we first add them to the data table and then recreate the task. # with `keep.rownames`, data.table stores the row names in an extra column &quot;rn&quot; data = as.data.table(mtcars[, 1:3], keep.rownames = TRUE) task = TaskRegr$new(id = &quot;cars&quot;, backend = data, target = &quot;mpg&quot;) # there is a new feature called &quot;rn&quot; task$feature_names ## [1] &quot;cyl&quot; &quot;disp&quot; &quot;rn&quot; The row names are now a feature whose values are stored in the column &quot;rn&quot;. We include this column here for educational purposes only. Generally speaking, there is no point in having a feature that uniquely identifies each row. Furthermore, the character data type will cause problems with many types of machine learning algorithms. The identifier may be useful to label points in plots and identify outliers however. To use the new column for only this purpose, we will change the role of the &quot;rn&quot; column and remove it from the set of active features. This is done by simply modifying the field $col_roles, which is a named list of vectors of column names. Each vector in this list corresponds to a column role, and the column names contained in that vector are designated as having that role. Supported column roles can be found in the manual of Task. # supported column roles, see ?Task names(task$col_roles) ## [1] &quot;feature&quot; &quot;target&quot; &quot;name&quot; &quot;order&quot; &quot;stratum&quot; &quot;group&quot; &quot;weight&quot; # assign column &quot;rn&quot; the role &quot;name&quot; task$col_roles$name = &quot;rn&quot; # remove &quot;rn&quot; from role &quot;feature&quot; task$col_roles$feature = setdiff(task$col_roles$feature, &quot;rn&quot;) # &quot;rn&quot; not listed as feature anymore task$feature_names ## [1] &quot;cyl&quot; &quot;disp&quot; # &quot;rn&quot; also does not appear anymore when we access the data task$data(rows = 1:2) ## # A tibble: 2 x 3 ## mpg cyl disp ## &lt;dbl&gt; &lt;dbl&gt; &lt;dbl&gt; ## 1 21 6 160 ## 2 21 6 160 task$head(2) ## # A tibble: 2 x 3 ## mpg cyl disp ## &lt;dbl&gt; &lt;dbl&gt; &lt;dbl&gt; ## 1 21 6 160 ## 2 21 6 160 Changing the role does not change the underlying data. Changing the role only changes the view on it. The data is not copied in the code above. The view is changed in-place though, i.e. the task object itself is modified. Just like columns, it is also possible to assign different roles to rows. Rows can have two different roles: Role use: Rows that are generally available for model fitting (although they may also be used as test set in resampling). This role is the default role. Role validation: Rows that are not used for training. Rows that have missing values in the target column during task creation are automatically set to the validation role. There are several reasons to hold some observations back or treat them differently: It is often good practice to validate the final model on an external validation set to identify possible overfitting. Some observations may be unlabeled, e.g. in competitions like Kaggle. These observations cannot be used for training a model, but can be used to get predictions. 2.2.4.3 Task Mutators As shown above, modifying $col_roles or $row_roles changes the view on the data. The additional convenience method $filter() subsets the current view based on row ids and $select() subsets the view based on feature names. task = tsk(&quot;iris&quot;) task$select(c(&quot;Sepal.Width&quot;, &quot;Sepal.Length&quot;)) # keep only these features task$filter(1:3) # keep only these rows task$head() ## # A tibble: 3 x 3 ## Species Sepal.Length Sepal.Width ## &lt;fct&gt; &lt;dbl&gt; &lt;dbl&gt; ## 1 setosa 5.1 3.5 ## 2 setosa 4.9 3 ## 3 setosa 4.7 3.2 While the methods discussed above allow to subset the data, the methods $rbind() and $cbind() allow to add extra rows and columns to a task. Again, the original data is not changed. The additional rows or columns are only added to the view of the data. task$cbind(data.table(foo = letters[1:3])) # add column foo task$head() ## # A tibble: 3 x 4 ## Species Sepal.Length Sepal.Width foo ## &lt;fct&gt; &lt;dbl&gt; &lt;dbl&gt; &lt;chr&gt; ## 1 setosa 5.1 3.5 a ## 2 setosa 4.9 3 b ## 3 setosa 4.7 3.2 c 2.2.5 Plotting Tasks The mlr3viz package provides plotting facilities for many classes implemented in mlr3. The available plot types depend on the inherited class, but all plots are returned as ggplot2 objects which can be easily customized. For classification tasks (inheriting from TaskClassif), see the documentation of mlr3viz::autoplot.TaskClassif for the implemented plot types. Here are some examples to get an impression: library(&quot;mlr3viz&quot;) # get the pima indians task task = tsk(&quot;pima&quot;) # subset task to only use the 3 first features task$select(head(task$feature_names, 3)) # default plot: class frequencies autoplot(task) # pairs plot (requires package GGally) autoplot(task, type = &quot;pairs&quot;) # duo plot (requires package GGally) autoplot(task, type = &quot;duo&quot;) Of course, you can do the same for regression tasks (inheriting from TaskRegr) as documented in mlr3viz::autoplot.TaskRegr: library(&quot;mlr3viz&quot;) # get the mtcars task task = tsk(&quot;mtcars&quot;) # subset task to only use the 3 first features task$select(head(task$feature_names, 3)) # default plot: boxplot of target variable autoplot(task) # pairs plot (requires package GGally) autoplot(task, type = &quot;pairs&quot;) "],
["learners.html", "2.3 Learners", " 2.3 Learners Objects of class mlr3::Learner provide a unified interface to many popular machine learning algorithms in R. They consist of methods to train and predict a model for a mlr3::Task and provide meta-information about the learners, such as the hyperparameters you can set. The package ships with a minimal set of classification and regression learners to avoid lots of dependencies: mlr_learners_classif.featureless: Simple baseline classification learner, constantly predicts the label that is most frequent in the training set. mlr_learners_classif.rpart: Single classification tree from rpart. mlr_learners_regr.featureless: Simple baseline regression learner, constantly predicts with the mean. mlr_learners_regr.rpart: Single regression tree from rpart. Some of the most popular learners are connected via the mlr3learners package: (penalized) linear and logistic regression \\(k\\)-Nearest Neighbors regression and classification Linear and Quadratic Discriminant Analysis Naive Bayes Support-Vector machines Gradient Boosting Random Regression Forests and Random Classification Forests Kriging More learners are collected on GitHub in the mlr3learners organization. Their state is also listed on the wiki of the mlr3learners repository. Below a graphical illustration of the role of a learner: The base class of each learner is Learner, specialized for regression as LearnerRegr and for classification as LearnerClassif. In contrast to the Task, the creation of a custom Learner is usually not required and a more advanced topic. Hence, we refer the reader to Section 6.1 and proceed with an overview of the interface of already implemented learners. 2.3.1 Predefined Learners Similar to mlr_tasks, the Dictionary mlr_learners can be queried for available learners: library(&quot;mlr3learners&quot;) mlr_learners ## &lt;DictionaryLearner&gt; with 24 stored values ## Keys: classif.cv_glmnet, classif.debug, classif.featureless, ## classif.glmnet, classif.kknn, classif.lda, classif.log_reg, ## classif.multinom, classif.naive_bayes, classif.qda, classif.ranger, ## classif.rpart, classif.svm, classif.xgboost, regr.cv_glmnet, ## regr.featureless, regr.glmnet, regr.kknn, regr.km, regr.lm, ## regr.ranger, regr.rpart, regr.svm, regr.xgboost Each learner has the following information: feature_types: the type of features the learner can deal with. packages: the packages required to train a model with this learner and make predictions. properties: additional properties and capabilities. For example, a learner has the property “missings” if it is able to handle missing feature values, and “importance” if it computes and allows to extract data on the relative importance of the features. A complete list of these is available in the mlr3 reference on regression learners and classification learners. predict_types: possible prediction types. For example, a classification learner can predict labels (“response”) or probabilities (“prob”). For a complete list of possible predict types see the mlr3 reference. For a tabular overview of integrated learners, see Section 9.1. You can get a specific learner using its id, listed under key in the dictionary: learner = mlr_learners$get(&quot;classif.rpart&quot;) print(learner) ## &lt;LearnerClassifRpart:classif.rpart&gt; ## * Model: - ## * Parameters: xval=0 ## * Packages: rpart ## * Predict Type: response ## * Feature types: logical, integer, numeric, factor, ordered ## * Properties: importance, missings, multiclass, selected_features, ## twoclass, weights The field param_set stores a description of the hyperparameters the learner has, their ranges, defaults, and current values: learner$param_set ## ParamSet: ## id class lower upper levels default value ## 1: minsplit ParamInt 1 Inf 20 ## 2: minbucket ParamInt 1 Inf &lt;NoDefault&gt; ## 3: cp ParamDbl 0 1 0.01 ## 4: maxcompete ParamInt 0 Inf 4 ## 5: maxsurrogate ParamInt 0 Inf 5 ## 6: maxdepth ParamInt 1 30 30 ## 7: usesurrogate ParamInt 0 2 2 ## 8: surrogatestyle ParamInt 0 1 0 ## 9: xval ParamInt 0 Inf 10 0 The set of current hyperparameter values is stored in the values field of the param_set field. You can change the current hyperparameter values by assigning a named list to this field: learner$param_set$values = list(cp = 0.01, xval = 0) learner ## &lt;LearnerClassifRpart:classif.rpart&gt; ## * Model: - ## * Parameters: cp=0.01, xval=0 ## * Packages: rpart ## * Predict Type: response ## * Feature types: logical, integer, numeric, factor, ordered ## * Properties: importance, missings, multiclass, selected_features, ## twoclass, weights Note that this operation just overwrites all previously set parameters. If you just want to add or update hyperparameters, you can use mlr3misc::insert_named(): learner$param_set$values = mlr3misc::insert_named( learner$param_set$values, list(cp = 0.02, minsplit = 2) ) learner ## &lt;LearnerClassifRpart:classif.rpart&gt; ## * Model: - ## * Parameters: cp=0.02, xval=0, minsplit=2 ## * Packages: rpart ## * Predict Type: response ## * Feature types: logical, integer, numeric, factor, ordered ## * Properties: importance, missings, multiclass, selected_features, ## twoclass, weights This updates cp to 0.02, sets minsplit to 2 and keeps the previously set parameter xval. Again, there is an alternative to writing down the lengthy mlr_learners$get() part: lrn(). This function additionally allows to construct learners with specific hyperparameters or settings of a different identifier in one go: lrn(&quot;classif.rpart&quot;, id = &quot;rp&quot;, cp = 0.001) ## &lt;LearnerClassifRpart:rp&gt; ## * Model: - ## * Parameters: xval=0, cp=0.001 ## * Packages: rpart ## * Predict Type: response ## * Feature types: logical, integer, numeric, factor, ordered ## * Properties: importance, missings, multiclass, selected_features, ## twoclass, weights If you pass hyperparameters here, they are added to the parameters in a insert_named()-fashion. "],
["train-predict.html", "2.4 Train and Predict", " 2.4 Train and Predict In this section, we explain how tasks and learners can be used to train a model and predict to a new dataset. The concept is demonstrated on a supervised classification using the iris dataset and the rpart learner, which builds a singe classification tree. Training a learner means fitting a model to a given data set. Subsequently, we want to predict the label for new observations. These predictions are compared to the ground truth values in order to assess the predictive performance of the model. 2.4.1 Creating Task and Learner Objects The first step is to generate the following mlr3 objects from the task dictionary and the learner dictionary, respectively: The classification task: task = tsk(&quot;sonar&quot;) A learner for the classification tree: learner = lrn(&quot;classif.rpart&quot;) 2.4.2 Setting up the train/test splits of the data It is common to train on a majority of the data. Here we use 80% of all available observations and predict on the remaining 20%. For this purpose, we create two index vectors: train_set = sample(task$nrow, 0.8 * task$nrow) test_set = setdiff(seq_len(task$nrow), train_set) In Section 2.5 we will learn how mlr3 can automatically create training and test sets based on different resampling strategies. 2.4.3 Training the learner The field $model stores the model that is produced in the training step. Before the $train() method is called on a learner object, this field is NULL: learner$model ## NULL Next, the classification tree is trained using the train set of the iris task by calling the $train() method of the Learner: learner$train(task, row_ids = train_set) This operation modifies the learner in-place. We can now access the stored model via the field $model: print(learner$model) ## n= 166 ## ## node), split, n, loss, yval, (yprob) ## * denotes terminal node ## ## 1) root 166 80 M (0.51807 0.48193) ## 2) V11&gt;=0.1609 109 33 M (0.69725 0.30275) ## 4) V27&gt;=0.8167 51 4 M (0.92157 0.07843) * ## 5) V27&lt; 0.8167 58 29 M (0.50000 0.50000) ## 10) V45&gt;=0.2383 12 0 M (1.00000 0.00000) * ## 11) V45&lt; 0.2383 46 17 R (0.36957 0.63043) ## 22) V31&lt; 0.3743 19 6 M (0.68421 0.31579) * ## 23) V31&gt;=0.3743 27 4 R (0.14815 0.85185) * ## 3) V11&lt; 0.1609 57 10 R (0.17544 0.82456) ## 6) V4&gt;=0.0515 11 4 M (0.63636 0.36364) * ## 7) V4&lt; 0.0515 46 3 R (0.06522 0.93478) * 2.4.4 Predicting After the model has been trained, we use the remaining part of the data for prediction. Remember that we initially split the data in train_set and test_set. prediction = learner$predict(task, row_ids = test_set) print(prediction) ## &lt;PredictionClassif&gt; for 42 observations: ## row_id truth response ## 10 R R ## 12 R R ## 15 R M ## --- ## 182 M M ## 192 M M ## 208 M M The $predict() method of the Learner returns a Prediction object. More precisely, a LearnerClassif returns a PredictionClassif object. A prediction objects holds the row ids of the test data, the respective true label of the target column and the respective predictions. The simplest way to extract this information is by converting the Prediction object to a data.table(): head(as.data.table(prediction)) ## # A tibble: 6 x 3 ## row_id truth response ## &lt;int&gt; &lt;fct&gt; &lt;fct&gt; ## 1 10 R R ## 2 12 R R ## 3 15 R M ## 4 18 R M ## 5 19 R M ## 6 28 R R For classification, you can also extract the confusion matrix: prediction$confusion ## truth ## response M R ## M 19 7 ## R 6 10 2.4.5 Changing the Predict Type Classification learners default to predicting the class label. However, many classifiers additionally also tell you how sure they are about the predicted label by providing posterior probabilities. To switch to predicting these probabilities, the predict_type field of a LearnerClassif must be changed from &quot;response&quot; to &quot;prob&quot; before training: learner$predict_type = &quot;prob&quot; # re-fit the model learner$train(task, row_ids = train_set) # rebuild prediction object prediction = learner$predict(task, row_ids = test_set) The prediction object now contains probabilities for all class labels: # data.table conversion head(as.data.table(prediction)) ## # A tibble: 6 x 5 ## row_id truth response prob.M prob.R ## &lt;int&gt; &lt;fct&gt; &lt;fct&gt; &lt;dbl&gt; &lt;dbl&gt; ## 1 10 R R 0.0652 0.935 ## 2 12 R R 0.0652 0.935 ## 3 15 R M 0.922 0.0784 ## 4 18 R M 0.636 0.364 ## 5 19 R M 0.922 0.0784 ## 6 28 R R 0.148 0.852 # directly access the predicted labels: head(prediction$response) ## [1] R R M M M R ## Levels: M R # directly access the matrix of probabilities: head(prediction$prob) ## M R ## [1,] 0.06522 0.93478 ## [2,] 0.06522 0.93478 ## [3,] 0.92157 0.07843 ## [4,] 0.63636 0.36364 ## [5,] 0.92157 0.07843 ## [6,] 0.14815 0.85185 Analogously to predicting probabilities, many regression learners support the extraction of standard error estimates by setting the predict type to &quot;se&quot;. 2.4.6 Plotting Predictions Analogously to plotting tasks, mlr3viz provides a autoplot() method for Prediction objects. All available types are listed on the manual page of autoplot.PredictionClassif() or autoplot.PredictionClassif(), respectively. library(&quot;mlr3viz&quot;) task = tsk(&quot;sonar&quot;) learner = lrn(&quot;classif.rpart&quot;, predict_type = &quot;prob&quot;) learner$train(task) prediction = learner$predict(task) autoplot(prediction) autoplot(prediction, type = &quot;roc&quot;) library(&quot;mlr3viz&quot;) library(&quot;mlr3learners&quot;) local({ # we do this locally to not overwrite the objects from previous chunks task = tsk(&quot;mtcars&quot;) learner = lrn(&quot;regr.lm&quot;) learner$train(task) prediction = learner$predict(task) autoplot(prediction) }) 2.4.7 Performance assessment The last step of modeling is usually the performance assessment. To assess the quality of the predictions, the predicted labels are compared with the true labels. How this comparison is calculated is defined by a measure, which is given by a Measure object. Note that if the prediction was made on a dataset without the target column, i.e. without true labels, then no performance can be calculated. Predefined available measures are stored in mlr_measures (with convenience getter msr()): mlr_measures ## &lt;DictionaryMeasure&gt; with 53 stored values ## Keys: classif.acc, classif.auc, classif.bacc, classif.bbrier, ## classif.ce, classif.costs, classif.dor, classif.fbeta, classif.fdr, ## classif.fn, classif.fnr, classif.fomr, classif.fp, classif.fpr, ## classif.logloss, classif.mbrier, classif.mcc, classif.npv, ## classif.ppv, classif.precision, classif.recall, classif.sensitivity, ## classif.specificity, classif.tn, classif.tnr, classif.tp, ## classif.tpr, debug, oob_error, regr.bias, regr.ktau, regr.mae, ## regr.mape, regr.maxae, regr.medae, regr.medse, regr.mse, regr.msle, ## regr.pbias, regr.rae, regr.rmse, regr.rmsle, regr.rrse, regr.rse, ## regr.rsq, regr.sae, regr.smape, regr.srho, regr.sse, ## selected_features, time_both, time_predict, time_train We choose accuracy (classif.acc) as a specific performance measure and call the method $score() of the Prediction object to quantify the predictive performance. measure = msr(&quot;classif.acc&quot;) prediction$score(measure) ## classif.acc ## 0.875 Note that, if no measure is specified, classification defaults to classification error (classif.ce) and regression defaults to the mean squared error (regr.mse). "],
["resampling.html", "2.5 Resampling", " 2.5 Resampling Resampling strategies are usually used to assess the performance of a learning algorithm. mlr3 entails 6 predefined resampling strategies: Cross-validation, Leave-one-out cross validation, Repeated cross-validation, Out-of-bag bootstrap and other variants (e.g. b632), Monte-Carlo cross-validation and Holdout. The following sections provide guidance on how to set and select a resampling strategy and how to subsequently instantiate the resampling process. Below you can find a graphical illustration of the resampling process: 2.5.1 Settings In this example we use the iris task and a simple classification tree from the rpart package. task = tsk(&quot;iris&quot;) learner = lrn(&quot;classif.rpart&quot;) When performing resampling with a dataset, we first need to define which approach should be used. mlr3 resampling strategies and their parameters can be queried by looking at the data.table output of the mlr_resamplings dictionary: as.data.table(mlr_resamplings) ## # A tibble: 7 x 3 ## key params iters ## &lt;chr&gt; &lt;list&gt; &lt;int&gt; ## 1 bootstrap &lt;chr [2]&gt; 30 ## 2 custom &lt;chr [0]&gt; 0 ## 3 cv &lt;chr [1]&gt; 10 ## 4 holdout &lt;chr [1]&gt; 1 ## 5 insample &lt;chr [0]&gt; 1 ## 6 repeated_cv &lt;chr [2]&gt; 100 ## 7 subsampling &lt;chr [2]&gt; 30 Additional resampling methods for special use cases will be available via extension packages, such as mlr3spatiotemporal for spatial data (still in development). The model fit conducted in the train/predict/score chapter is equivalent to a “holdout resampling”, so let’s consider this one first. Again, we can retrieve elements from the dictionary mlr_resamplings via $get() or with the convenience functionrsmp(): resampling = rsmp(&quot;holdout&quot;) print(resampling) ## &lt;ResamplingHoldout&gt; with 1 iterations ## * Instantiated: FALSE ## * Parameters: ratio=0.6667 Note that the $is_instantiated field is set to FALSE. This means we did not actually apply the strategy on a dataset yet. Applying the strategy on a dataset is done in the next section Instantiation. By default we get a .66/.33 split of the data. There are two ways in which the ratio can be changed: Overwriting the slot in $param_set$values using a named list: resampling$param_set$values = list(ratio = 0.8) Specifying the resampling parameters directly during construction: rsmp(&quot;holdout&quot;, ratio = 0.8) ## &lt;ResamplingHoldout&gt; with 1 iterations ## * Instantiated: FALSE ## * Parameters: ratio=0.8 2.5.2 Instantiation So far we just set the stage and selected the resampling strategy. To actually perform the splitting and obtain indices for the training and the test split the resampling needs a Task. By calling the method instantiate(), we split the indices of the data into indices for training and test sets. These resulting indices are stored in the Resampling object: resampling = rsmp(&quot;cv&quot;, folds = 3L) resampling$instantiate(task) resampling$iters ## [1] 3 str(resampling$train_set(1)) ## int [1:100] 1 5 9 16 19 20 22 23 27 31 ... str(resampling$test_set(1)) ## int [1:50] 3 4 7 8 11 13 17 18 21 24 ... 2.5.3 Execution With a Task, a Learner and a Resampling object we can call resample(), which fits the learner to the task at hand according to the given resampling strategy. This in turn creates a ResampleResult object. Before we go into more detail, let’s change the resampling to a “3-fold cross-validation” to better illustrate what operations are possible with a ResampleResult. Additionally, when actually fitting the models, we tell resample() to keep the fitted models by setting the store_models option to TRUE: task = tsk(&quot;pima&quot;) learner = lrn(&quot;classif.rpart&quot;, maxdepth = 3, predict_type = &quot;prob&quot;) resampling = rsmp(&quot;cv&quot;, folds = 3L) rr = resample(task, learner, resampling, store_models = TRUE) print(rr) ## &lt;ResampleResult&gt; of 3 iterations ## * Task: pima ## * Learner: classif.rpart ## * Warnings: 0 in 0 iterations ## * Errors: 0 in 0 iterations The following operations are supported with ResampleResult objects: Calculate the average performance across all resampling iterations: rr$aggregate(msr(&quot;classif.ce&quot;)) ## classif.ce ## 0.25 Extract the performance for the individual resampling iterations: rr$score(msr(&quot;classif.ce&quot;)) ## # A tibble: 3 x 9 ## task task_id learner learner_id resampling resampling_id iteration prediction ## &lt;lis&gt; &lt;chr&gt; &lt;list&gt; &lt;chr&gt; &lt;list&gt; &lt;chr&gt; &lt;int&gt; &lt;list&gt; ## 1 &lt;Tsk… pima &lt;LrnrC… classif.r… &lt;RsmplnCV&gt; cv 1 &lt;named li… ## 2 &lt;Tsk… pima &lt;LrnrC… classif.r… &lt;RsmplnCV&gt; cv 2 &lt;named li… ## 3 &lt;Tsk… pima &lt;LrnrC… classif.r… &lt;RsmplnCV&gt; cv 3 &lt;named li… ## # … with 1 more variable: classif.ce &lt;dbl&gt; Check for warnings or errors: rr$warnings ## # A tibble: 0 x 2 ## # … with 2 variables: iteration &lt;int&gt;, msg &lt;chr&gt; rr$errors ## # A tibble: 0 x 2 ## # … with 2 variables: iteration &lt;int&gt;, msg &lt;chr&gt; Extract and inspect the resampling splits: rr$resampling ## &lt;ResamplingCV&gt; with 3 iterations ## * Instantiated: TRUE ## * Parameters: folds=3 rr$resampling$iters ## [1] 3 str(rr$resampling$test_set(1)) ## int [1:256] 3 7 8 9 11 12 14 15 23 25 ... str(rr$resampling$train_set(1)) ## int [1:512] 1 2 4 5 13 16 18 20 24 27 ... Retrieve the learner of a specific iteration and inspect it: lrn = rr$learners[[1]] lrn$model ## n= 512 ## ## node), split, n, loss, yval, (yprob) ## * denotes terminal node ## ## 1) root 512 165 neg (0.3223 0.6777) ## 2) glucose&gt;=143.5 112 33 pos (0.7054 0.2946) * ## 3) glucose&lt; 143.5 400 86 neg (0.2150 0.7850) * Extract the predictions: rr$prediction() # all predictions merged into a single Prediction ## &lt;PredictionClassif&gt; for 768 observations: ## row_id truth response prob.pos prob.neg ## 3 pos pos 0.7054 0.2946 ## 7 pos neg 0.2150 0.7850 ## 8 neg neg 0.2150 0.7850 ## --- ## 764 neg neg 0.2129 0.7871 ## 766 neg neg 0.2129 0.7871 ## 768 neg neg 0.2129 0.7871 rr$predictions()[[1]] # prediction of first resampling iteration ## &lt;PredictionClassif&gt; for 256 observations: ## row_id truth response prob.pos prob.neg ## 3 pos pos 0.7054 0.2946 ## 7 pos neg 0.2150 0.7850 ## 8 neg neg 0.2150 0.7850 ## --- ## 758 pos neg 0.2150 0.7850 ## 765 neg neg 0.2150 0.7850 ## 767 pos neg 0.2150 0.7850 Note that if you want to compare multiple Learners in a fair manner, it is important to ensure that each learner operates on the same resampling instance. This can be achieved by manually instantiating the instance before fitting model(s) on it. Hint: If your aim is to compare different Task, Learner or Resampling, you are better off using the benchmark() function which is covered in the next section on benchmarking. It is a wrapper around resample(), simplifying the handling of large comparison grids. If you discover this only after you’ve run multiple resample() calls, don’t worry. You can combine multiple ResampleResult objects into a BenchmarkResult (also explained in the section benchmarking). 2.5.4 Custom resampling Sometimes it is necessary to perform resampling with custom splits. If you want to do that because you are coming from a specific modeling field, first take a look at the mlr3 extension packages, to check wheter your resampling method has been implemented already. If this is not the case, feel welcome to extend an existing package or create your own extension package. A manual resampling instance can be created using the &quot;custom&quot; template. resampling = rsmp(&quot;custom&quot;) resampling$instantiate(task, train = list(c(1:10, 51:60, 101:110)), test = list(c(11:20, 61:70, 111:120)) ) resampling$iters ## [1] 1 resampling$train_set(1) ## [1] 1 2 3 4 5 6 7 8 9 10 51 52 53 54 55 56 57 58 59 ## [20] 60 101 102 103 104 105 106 107 108 109 110 resampling$test_set(1) ## [1] 11 12 13 14 15 16 17 18 19 20 61 62 63 64 65 66 67 68 69 ## [20] 70 111 112 113 114 115 116 117 118 119 120 2.5.5 Plotting Resample Results Again, mlr3viz provides a autoplot() method. library(&quot;mlr3viz&quot;) autoplot(rr) autoplot(rr, type = &quot;roc&quot;) All available plot types are listed on the manual page of autoplot.ResampleResult(). "],
["benchmarking.html", "2.6 Benchmarking", " 2.6 Benchmarking Comparing the performance of different learners on multiple tasks and/or different resampling schemes is a common task. This operation is usually referred to as “benchmarking” in the field of machine-learning. The mlr3 package offers the benchmark() function for convenience. 2.6.1 Design Creation In mlr3 we require you to supply a “design” of your benchmark experiment. By “design” we essentially mean the matrix of settings you want to execute. A “design” consists of unique combinations of Task, Learner and Resampling triplets. Here, we call benchmark() to perform a single holdout split on a single task and two learners. We use the benchmark_grid() function to create an exhaustive design and instantiate the resampling properly, so that all learners are executed on the same train/test split for each task: library(&quot;data.table&quot;) design = benchmark_grid( tasks = tsk(&quot;iris&quot;), learners = list(lrn(&quot;classif.rpart&quot;), lrn(&quot;classif.featureless&quot;)), resamplings = rsmp(&quot;holdout&quot;) ) print(design) ## task learner resampling ## 1: &lt;TaskClassif&gt; &lt;LearnerClassifRpart&gt; &lt;ResamplingHoldout&gt; ## 2: &lt;TaskClassif&gt; &lt;LearnerClassifFeatureless&gt; &lt;ResamplingHoldout&gt; bmr = benchmark(design) Instead of using benchmark_grid() you could also create the design manually as a data.table and use the full flexibility of the benchmark() function. The design does not have to be exhaustive, e.g. it can also contain a different learner for each task. However, you should note that benchmark_grid() makes sure to instantiate the resamplings for each task. If you create the design manually, even if the same task is used multiple times, the train/test splits will be different for each row of the design if you do not manually instantiate the resampling before creating the design. Let’s construct a more complex design to show the full capabilities of the benchmark() function. # get some example tasks tasks = lapply(c(&quot;german_credit&quot;, &quot;sonar&quot;), tsk) # get some learners and for all learners ... # * predict probabilities # * predict also on the training set library(&quot;mlr3learners&quot;) learners = c(&quot;classif.featureless&quot;, &quot;classif.rpart&quot;, &quot;classif.ranger&quot;, &quot;classif.kknn&quot;) learners = lapply(learners, lrn, predict_type = &quot;prob&quot;, predict_sets = c(&quot;train&quot;, &quot;test&quot;)) # compare via 3-fold cross validation resamplings = rsmp(&quot;cv&quot;, folds = 3) # create a BenchmarkDesign object design = benchmark_grid(tasks, learners, resamplings) print(design) ## task learner resampling ## 1: &lt;TaskClassif&gt; &lt;LearnerClassifFeatureless&gt; &lt;ResamplingCV&gt; ## 2: &lt;TaskClassif&gt; &lt;LearnerClassifRpart&gt; &lt;ResamplingCV&gt; ## 3: &lt;TaskClassif&gt; &lt;LearnerClassifRanger&gt; &lt;ResamplingCV&gt; ## 4: &lt;TaskClassif&gt; &lt;LearnerClassifKKNN&gt; &lt;ResamplingCV&gt; ## 5: &lt;TaskClassif&gt; &lt;LearnerClassifFeatureless&gt; &lt;ResamplingCV&gt; ## 6: &lt;TaskClassif&gt; &lt;LearnerClassifRpart&gt; &lt;ResamplingCV&gt; ## 7: &lt;TaskClassif&gt; &lt;LearnerClassifRanger&gt; &lt;ResamplingCV&gt; ## 8: &lt;TaskClassif&gt; &lt;LearnerClassifKKNN&gt; &lt;ResamplingCV&gt; 2.6.2 Execution and Aggregation of Results After the benchmark design is ready, we can directly call benchmark(): # execute the benchmark bmr = benchmark(design) Note that we did not instantiate the resampling instance manually. benchmark_grid() took care of it for us: Each resampling strategy is instantiated once for each task during the construction of the exhaustive grid. After the benchmark, we can calculate and aggregate the performance with $aggregate(): # measures: # * area under the curve (auc) on training # * area under the curve (auc) on test measures = list( msr(&quot;classif.auc&quot;, id = &quot;auc_train&quot;, predict_sets = &quot;train&quot;), msr(&quot;classif.auc&quot;, id = &quot;auc_test&quot;) ) bmr$aggregate(measures) ## # A tibble: 8 x 8 ## nr resample_result task_id learner_id resampling_id iters auc_train ## &lt;int&gt; &lt;list&gt; &lt;chr&gt; &lt;chr&gt; &lt;chr&gt; &lt;int&gt; &lt;dbl&gt; ## 1 1 &lt;RsmplRsl&gt; german… classif.f… cv 3 0.5 ## 2 2 &lt;RsmplRsl&gt; german… classif.r… cv 3 0.803 ## 3 3 &lt;RsmplRsl&gt; german… classif.r… cv 3 0.999 ## 4 4 &lt;RsmplRsl&gt; german… classif.k… cv 3 0.989 ## 5 5 &lt;RsmplRsl&gt; sonar classif.f… cv 3 0.5 ## 6 6 &lt;RsmplRsl&gt; sonar classif.r… cv 3 0.920 ## 7 7 &lt;RsmplRsl&gt; sonar classif.r… cv 3 1 ## 8 8 &lt;RsmplRsl&gt; sonar classif.k… cv 3 0.999 ## # … with 1 more variable: auc_test &lt;dbl&gt; Subsequently, we can aggregate the results further. For example, we might be interested which learner performed best over all tasks simultaneously. Simply aggregating the performances with the mean is usually not statistically sound. Instead, we calculate the rank statistic for each learner grouped by task. Then the calculated ranks grouped by learner are aggregated with data.table. Since the AUC needs to be maximized, we multiply with \\(-1\\) so that the best learner gets a rank of \\(1\\). tab = bmr$aggregate(measures) print(tab) ## nr resample_result task_id learner_id resampling_id iters ## 1: 1 &lt;ResampleResult&gt; german_credit classif.featureless cv 3 ## 2: 2 &lt;ResampleResult&gt; german_credit classif.rpart cv 3 ## 3: 3 &lt;ResampleResult&gt; german_credit classif.ranger cv 3 ## 4: 4 &lt;ResampleResult&gt; german_credit classif.kknn cv 3 ## 5: 5 &lt;ResampleResult&gt; sonar classif.featureless cv 3 ## 6: 6 &lt;ResampleResult&gt; sonar classif.rpart cv 3 ## 7: 7 &lt;ResampleResult&gt; sonar classif.ranger cv 3 ## 8: 8 &lt;ResampleResult&gt; sonar classif.kknn cv 3 ## auc_train auc_test ## 1: 0.5000 0.5000 ## 2: 0.8028 0.6961 ## 3: 0.9986 0.7956 ## 4: 0.9892 0.6968 ## 5: 0.5000 0.5000 ## 6: 0.9196 0.7531 ## 7: 1.0000 0.9093 ## 8: 0.9985 0.9011 # group by levels of task_id, return columns: # - learner_id # - rank of col &#39;-auc_train&#39; (per level of learner_id) # - rank of col &#39;-auc_test&#39; (per level of learner_id) ranks = tab[, .(learner_id, rank_train = rank(-auc_train), rank_test = rank(-auc_test)), by = task_id] print(ranks) ## task_id learner_id rank_train rank_test ## 1: german_credit classif.featureless 4 4 ## 2: german_credit classif.rpart 3 3 ## 3: german_credit classif.ranger 1 1 ## 4: german_credit classif.kknn 2 2 ## 5: sonar classif.featureless 4 4 ## 6: sonar classif.rpart 3 3 ## 7: sonar classif.ranger 1 1 ## 8: sonar classif.kknn 2 2 # group by levels of learner_id, return columns: # - mean rank of col &#39;rank_train&#39; (per level of learner_id) # - mean rank of col &#39;rank_test&#39; (per level of learner_id) ranks = ranks[, .(mrank_train = mean(rank_train), mrank_test = mean(rank_test)), by = learner_id] # print the final table, ordered by mean rank of AUC test ranks[order(mrank_test)] ## # A tibble: 4 x 3 ## learner_id mrank_train mrank_test ## &lt;chr&gt; &lt;dbl&gt; &lt;dbl&gt; ## 1 classif.ranger 1 1 ## 2 classif.kknn 2 2 ## 3 classif.rpart 3 3 ## 4 classif.featureless 4 4 Unsurprisingly, the featureless learner is outperformed on both training and test set. 2.6.3 Plotting Benchmark Results Analogously to plotting tasks, predictions or resample results, mlr3viz also provides a autoplot() method for benchmark results. library(&quot;mlr3viz&quot;) library(&quot;ggplot2&quot;) autoplot(bmr) + theme(axis.text.x = element_text(angle = 45, hjust = 1)) We can also plot ROC curves. To do so, we first need to filter the BenchmarkResult to only contain a single Task: autoplot(bmr$clone()$filter(task_id = &quot;german_credit&quot;), type = &quot;roc&quot;) All available types are listed on the manual page of autoplot.BenchmarkResult(). 2.6.4 Extracting ResampleResults A BenchmarkResult object is essentially a collection of multiple ResampleResult objects. As these are stored in a column of the aggregated data.table(), we can easily extract them: tab = bmr$aggregate(measures) rr = tab[task_id == &quot;sonar&quot; &amp; learner_id == &quot;classif.ranger&quot;]$resample_result[[1]] print(rr) ## &lt;ResampleResult&gt; of 3 iterations ## * Task: sonar ## * Learner: classif.ranger ## * Warnings: 0 in 0 iterations ## * Errors: 0 in 0 iterations We can now investigate this resampling and even single resampling iterations using one of the approaches shown in the previous section: measure = msr(&quot;classif.auc&quot;) rr$aggregate(measure) ## classif.auc ## 0.9093 # get the iteration with worst AUC perf = rr$score(measure) i = which.min(perf$classif.auc) # get the corresponding learner and train set print(rr$learners[[i]]) ## &lt;LearnerClassifRanger:classif.ranger&gt; ## * Model: - ## * Parameters: list() ## * Packages: ranger ## * Predict Type: prob ## * Feature types: logical, integer, numeric, character, factor, ordered ## * Properties: importance, multiclass, oob_error, twoclass, weights head(rr$resampling$train_set(i)) ## [1] 1 2 3 13 17 26 2.6.5 Converting and Merging ResampleResults It is also possible to cast a single ResampleResult to a BenchmarkResult using the converter as_benchmark_result(). task = tsk(&quot;iris&quot;) resampling = rsmp(&quot;holdout&quot;)$instantiate(task) rr1 = resample(task, lrn(&quot;classif.rpart&quot;), resampling) rr2 = resample(task, lrn(&quot;classif.featureless&quot;), resampling) # Cast both ResampleResults to BenchmarkResults bmr1 = as_benchmark_result(rr1) bmr2 = as_benchmark_result(rr2) # Merge 2nd BMR into the first BMR bmr1$combine(bmr2) bmr1 ## &lt;BenchmarkResult&gt; of 2 rows with 2 resampling runs ## nr task_id learner_id resampling_id iters warnings errors ## 1 iris classif.rpart holdout 1 0 0 ## 2 iris classif.featureless holdout 1 0 0 "],
["binary.html", "2.7 Binary classification", " 2.7 Binary classification Classification problems with a target variable containing only two classes are called “binary”. For such binary target variables, you can specify the positive class within the classification task object during task creation. If not explicitly set during construction, the positive class defaults to the first level of the target variable. # during construction data(&quot;Sonar&quot;, package = &quot;mlbench&quot;) task = TaskClassif$new(id = &quot;Sonar&quot;, Sonar, target = &quot;Class&quot;, positive = &quot;R&quot;) # switch positive class to level &#39;M&#39; task$positive = &quot;M&quot; 2.7.1 ROC Curve and Thresholds ROC Analysis, which stands for “receiver operating characteristics”, is a subfield of machine learning which studies the evaluation of binary prediction systems. We saw earlier that one can retrieve the confusion matrix of a Prediction by accessing the $confusion field: learner = lrn(&quot;classif.rpart&quot;, predict_type = &quot;prob&quot;) pred = learner$train(task)$predict(task) C = pred$confusion print(C) ## truth ## response M R ## M 95 10 ## R 16 87 The confusion matrix contains the counts of correct and incorrect class assignments, grouped by class labels. The columns illustrate the true (observed) labels and the rows display the predicted labels. The positive is always the first row or column in the confusion matrix. Thus, the element in \\(C_{11}\\) is the number of times our model predicted the positive class and was right about it. Analogously, the element in \\(C_{22}\\) is the number of times our model predicted the negative class and was also right about it. The elements on the diagonal are called True Positives (TP) and True Negatives (TN). The element \\(C_{12}\\) is the number of times we falsely predicted a positive label, and is called False Positives (FP). The element \\(C_{21}\\) is called False Negatives (FN). We can now normalize in rows and columns of the confusion matrix to derive several informative metrics: True Positive Rate (TPR): How many of the true positives did we predict as positive? True Negative Rate (TNR): How many of the true negatives did we predict as negative? Positive Predictive Value PPV: If we predict positive how likely is it a true positive? Negative Predictive Value NPV: If we predict negative how likely is it a true negative? Source: Wikipedia It is difficult to achieve a high TPR and low FPR in conjunction, so one uses them for constructing the ROC Curve. We characterize a classifier by its TPR and FPR values and plot them in a coordinate system. The best classifier lies on the top-left corner. The worst classifier lies at the diagonal. Classifiers lying on the diagonal produce random labels (with different proportions). If each positive \\(x\\) will be randomly classified with 25% as “positive”, we get a TPR of 0.25. If we assign each negative \\(x\\) randomly to “positive” we get a FPR of 0.25. In practice, we should never obtain a classifier below the diagonal, as inverting the predicted labels will result in a reflection at the diagonal. A scoring classifier is a model which produces scores or probabilities, instead of discrete labels. To obtain probabilities from a learner in mlr3, you have to set predict_type = &quot;prob&quot; for a ref(&quot;LearnerClassif&quot;). Whether a classifier can predict probabilities is given in its $predict_types field. Thresholding flexibly converts measured probabilities to labels. Predict \\(1\\) (positive class) if \\(\\hat{f}(x) &gt; \\tau\\) else predict \\(0\\). Normally, one could use \\(\\tau = 0.5\\) to convert probabilities to labels, but for imbalanced or cost-sensitive situations another threshold could be more suitable. After thresholding, any metric defined on labels can be used. For mlr3 prediction objects, the ROC curve can easily be created with mlr3viz which relies on the precrec to calculate and plot ROC curves: # TPR vs FPR / Sensitivity vs (1 - Specificity) ggplot2::autoplot(pred, type = &quot;roc&quot;) # Precision vs Recall ggplot2::autoplot(pred, type = &quot;prc&quot;) 2.7.2 Threshold Tuning "],
["model-optim.html", "3 Model Optimization", " 3 Model Optimization Model Tuning Machine learning algorithms have default values set for their hyperparameters. Irrespective, these hyperparameters need to be changed by the user to achieve optimal performance on the given dataset. A manual selection of hyperparameter values is not recommended as this approach rarely leads to an optimal performance. To substantiate the validity of the selected hyperparameters (= tuning), data-driven optimization is recommended. In order to tune a machine learning algorithm, one has to specify (1) the search space, (2) the optimization algorithm (aka tuning method) and (3) an evaluation method, i.e., a resampling strategy and (4) a performance measure. In summary, the sub-chapter on tuning illustrates how to: undertake empirically sound hyperparameter selection select the optimizing algorithm trigger the tuning automate tuning This sub-chapter also requires the package mlr3tuning, an extension package which supports hyperparameter tuning. Feature Selection The second part of this chapter explains feature selection also known as variable selection. Feature selection is the process of finding a subset of relevant features of the available data. The purpose can be manifold: Enhance the interpretability of the model, speed up model fitting or improve the learner performance by reducing noise in the data. In this book we focus mainly on the last aspect. Different approaches exist to identify the relevant features. In this sub-chapter on feature selection, three approaches are emphasized: Filter algorithms select features independently of the learner according to a score. Variable importance filters select features that are important according to a learner. Wrapper methods iteratively select features to optimize a performance measure. Note, that filters do not require a learner. Variable importance filters require a learner that can calculate feature importance values once it is trained. The obtained importance values can be used to subset the data, which then can be used to train any learner. Wrapper methods can be used with any learner but need to train the learner multiple times. Nested Resampling In order to get a good estimate of generalization performance and avoid data leakage, both an outer (performance) and an inner (tuning/feature selection) resampling process are necessary. Following features are discussed in this chapter: Inner and outer resampling strategies in nested resampling The execution of nested resampling The evaluation of executed resampling iterations This sub-section will provide instructions on how to implement nested resampling, accounting for both inner and outer resampling in mlr3. "],
["tuning.html", "3.1 Hyperparameter Tuning", " 3.1 Hyperparameter Tuning Hyperparameters are second-order parameters of machine learning models that, while often not explicitly optimized during the model estimation process, can have important impacts on the outcome and predictive performance of a model. Typically, hyperparameters are fixed before training a model. However, because the output of a model can be sensitive to the specification of hyperparameters, it is often recommended to make an informed decision about which hyperparameter settings may yield better model performance. In many cases, hyperparameter settings may be chosen a priori, but it can be advantageous to try different settings before fitting your model on the training data. This process is often called ‘tuning’ your model. Hyperparameter tuning is supported via the extension package mlr3tuning. Below you can find an illustration of the process: At the heart of mlr3tuning are the R6 classes: TuningInstance: This class describes the tuning problem and stores results. Tuner: This class is the base class for implementations of tuning algorithms. 3.1.1 The TuningInstance Class The following sub-section examines the optimization of a simple classification tree on the Pima Indian Diabetes data set. task = tsk(&quot;pima&quot;) print(task) ## &lt;TaskClassif:pima&gt; (768 x 9) ## * Target: diabetes ## * Properties: twoclass ## * Features (8): ## - dbl (8): age, glucose, insulin, mass, pedigree, pregnant, pressure, ## triceps We use the classification tree from rpart and choose a subset of the hyperparameters we want to tune. This is often referred to as the “tuning space”. learner = lrn(&quot;classif.rpart&quot;) learner$param_set ## ParamSet: ## id class lower upper levels default value ## 1: minsplit ParamInt 1 Inf 20 ## 2: minbucket ParamInt 1 Inf &lt;NoDefault&gt; ## 3: cp ParamDbl 0 1 0.01 ## 4: maxcompete ParamInt 0 Inf 4 ## 5: maxsurrogate ParamInt 0 Inf 5 ## 6: maxdepth ParamInt 1 30 30 ## 7: usesurrogate ParamInt 0 2 2 ## 8: surrogatestyle ParamInt 0 1 0 ## 9: xval ParamInt 0 Inf 10 0 Here, we opt to tune two parameters: The complexity cp The termination criterion minsplit The tuning space has to be bound, therefore one has to set lower and upper bounds: library(&quot;paradox&quot;) tune_ps = ParamSet$new(list( ParamDbl$new(&quot;cp&quot;, lower = 0.001, upper = 0.1), ParamInt$new(&quot;minsplit&quot;, lower = 1, upper = 10) )) tune_ps ## ParamSet: ## id class lower upper levels default value ## 1: cp ParamDbl 0.001 0.1 &lt;NoDefault&gt; ## 2: minsplit ParamInt 1.000 10.0 &lt;NoDefault&gt; Next, we need to specify how to evaluate the performance. For this, we need to choose a resampling strategy and a performance measure. hout = rsmp(&quot;holdout&quot;) measure = msr(&quot;classif.ce&quot;) Finally, one has to select the budget available, to solve this tuning instance. This is done by selecting one of the available Terminators: Terminate after a given time (TerminatorClockTime) Terminate after a given amount of iterations (TerminatorEvals) Terminate after a specific performance is reached (TerminatorPerfReached) Terminate when tuning does not improve (TerminatorStagnation) A combination of the above in an ALL or ANY fashion (TerminatorCombo) For this short introduction, we specify a budget of 20 evaluations and then put everything together into a TuningInstance: library(&quot;mlr3tuning&quot;) evals20 = term(&quot;evals&quot;, n_evals = 20) instance = TuningInstance$new( task = task, learner = learner, resampling = hout, measures = measure, param_set = tune_ps, terminator = evals20 ) print(instance) ## &lt;TuningInstance&gt; ## * State: Not tuned ## * Task: &lt;TaskClassif:pima&gt; ## * Learner: &lt;LearnerClassifRpart:classif.rpart&gt; ## * Measures: classif.ce ## * Resampling: &lt;ResamplingHoldout&gt; ## * Terminator: &lt;TerminatorEvals&gt; ## * bm_args: list() ## * n_evals: 0 ## ParamSet: ## id class lower upper levels default value ## 1: cp ParamDbl 0.001 0.1 &lt;NoDefault&gt; ## 2: minsplit ParamInt 1.000 10.0 &lt;NoDefault&gt; To start the tuning, we still need to select how the optimization should take place. In other words, we need to choose the optimization algorithm via the Tuner class. 3.1.2 The Tuner Class The following algorithms are currently implemented in mlr3tuning: Grid Search (TunerGridSearch) Random Search (TunerRandomSearch) (Bergstra and Bengio 2012) Generalized Simulated Annealing (TunerGenSA) In this example, we will use a simple grid search with a grid resolution of 10: tuner = tnr(&quot;grid_search&quot;, resolution = 5) Since we have only numeric parameters, TunerGridSearch will create a grid of equally-sized steps between the respective upper and lower bounds. As we have two hyperparameters with a resolution of 5, the two-dimensional grid consists of \\(5^2 = 25\\) configurations. Each configuration serves as hyperparameter setting for the classification tree and triggers a 3-fold cross validation on the task. All configurations will be examined by the tuner (in a random order), until either all configurations are evaluated or the Terminator signals that the budget is exhausted. 3.1.3 Triggering the Tuning To start the tuning, we simply pass the TuningInstance to the $tune() method of the initialized Tuner. The tuner proceeds as follow: The Tuner proposes at least one hyperparameter configuration (the Tuner and may propose multiple points to improve parallelization, which can be controlled via the setting batch_size). For each configuration, a Learner is fitted on Task using the provided Resampling. The results are combined with other results from previous iterations to a single BenchmarkResult. The Terminator is queried if the budget is exhausted. If the budget is not exhausted, restart with 1) until it is. Determine the configuration with the best observed performance. Return a named list with the hyperparameter settings (&quot;values&quot;) and the corresponding measured performance (&quot;performance&quot;). result = tuner$tune(instance) print(result) ## NULL One can investigate all resamplings which were undertaken, using the $archive() method of the TuningInstance. Here, we just extract the performance values and the hyperparameters: instance$archive(unnest = &quot;params&quot;)[, c(&quot;cp&quot;, &quot;minsplit&quot;, &quot;classif.ce&quot;)] ## # A tibble: 20 x 3 ## cp minsplit classif.ce ## &lt;dbl&gt; &lt;dbl&gt; &lt;dbl&gt; ## 1 0.1 8 0.230 ## 2 0.001 8 0.254 ## 3 0.1 10 0.230 ## 4 0.0505 1 0.230 ## 5 0.0258 1 0.230 ## 6 0.0258 8 0.230 ## 7 0.0753 8 0.230 ## 8 0.001 3 0.297 ## 9 0.001 1 0.297 ## 10 0.001 5 0.270 ## 11 0.1 1 0.230 ## 12 0.0753 10 0.230 ## 13 0.0505 5 0.230 ## 14 0.0505 10 0.230 ## 15 0.0258 10 0.230 ## 16 0.0505 3 0.230 ## 17 0.1 5 0.230 ## 18 0.0753 5 0.230 ## 19 0.0505 8 0.230 ## 20 0.0753 3 0.230 In sum, the grid search evaluated 20/25 different configurations of the grid in a random order before the Terminator stopped the tuning. Now the optimized hyperparameters can take the previously created Learner, set the returned hyperparameters and train it on the full dataset. learner$param_set$values = instance$result$params learner$train(task) The trained model can now be used to make a prediction on external data. Note that predicting on observations present in the task, should be avoided. The model has seen these observations already during tuning and therefore results would be statistically biased. Hence, the resulting performance measure would be over-optimistic. Instead, to get statistically unbiased performance estimates for the current task, nested resampling is required. 3.1.4 Automating the Tuning The AutoTuner wraps a learner and augments it with an automatic tuning for a given set of hyperparameters. Because the AutoTuner itself inherits from the Learner base class, it can be used like any other learner. Analogously to the previous subsection, a new classification tree learner is created. This classification tree learner automatically tunes the parameters cp and minsplit using an inner resampling (holdout). We create a terminator which allows 10 evaluations, and use a simple random search as tuning algorithm: library(&quot;paradox&quot;) library(&quot;mlr3tuning&quot;) learner = lrn(&quot;classif.rpart&quot;) resampling = rsmp(&quot;holdout&quot;) measures = msr(&quot;classif.ce&quot;) tune_ps = ParamSet$new(list( ParamDbl$new(&quot;cp&quot;, lower = 0.001, upper = 0.1), ParamInt$new(&quot;minsplit&quot;, lower = 1, upper = 10) )) terminator = term(&quot;evals&quot;, n_evals = 10) tuner = tnr(&quot;random_search&quot;) at = AutoTuner$new( learner = learner, resampling = resampling, measures = measures, tune_ps = tune_ps, terminator = terminator, tuner = tuner ) at ## &lt;AutoTuner:classif.rpart.tuned&gt; ## * Model: - ## * Parameters: xval=0 ## * Packages: rpart ## * Predict Type: response ## * Feature types: logical, integer, numeric, factor, ordered ## * Properties: importance, missings, multiclass, selected_features, ## twoclass, weights We can now use the learner like any other learner, calling the $train() and $predict() method. This time however, we pass it to benchmark() to compare the tuner to a classification tree without tuning. This way, the AutoTuner will do its resampling for tuning on the training set of the respective split of the outer resampling. The learner then undertakes predictions using the test set of the outer resampling. This yields unbiased performance measures, as the observations in the test set have not been used during tuning or fitting of the respective learner. This is called nested resampling. To compare the tuned learner with the learner using its default, we can use benchmark(): grid = benchmark_grid( task = tsk(&quot;pima&quot;), learner = list(at, lrn(&quot;classif.rpart&quot;)), resampling = rsmp(&quot;cv&quot;, folds = 3) ) bmr = benchmark(grid) bmr$aggregate(measures) ## # A tibble: 2 x 7 ## nr resample_result task_id learner_id resampling_id iters classif.ce ## &lt;int&gt; &lt;list&gt; &lt;chr&gt; &lt;chr&gt; &lt;chr&gt; &lt;int&gt; &lt;dbl&gt; ## 1 1 &lt;RsmplRsl&gt; pima classif.rpart.tu… cv 3 0.246 ## 2 2 &lt;RsmplRsl&gt; pima classif.rpart cv 3 0.263 Note that we do not expect any differences compared to the non-tuned approach for multiple reasons: the task is too easy the task is rather small, and thus prone to overfitting the tuning budget (10 evaluations) is small rpart does not benefit that much from tuning References "],
["fs.html", "3.2 Feature Selection / Filtering", " 3.2 Feature Selection / Filtering Often, data sets include a large number of features. The technique of extracting a subset of relevant features is called “feature selection”. The objective of feature selection is to fit the sparse dependent of a model on a subset of available data features in the most suitable manner. Feature selection can enhance the interpretability of the model, speed up the learning process and improve the learner performance. Different approaches exist to identify the relevant features. Two different approaches are emphasized in the literature: one is called Filtering and the other approach is often referred to as feature subset selection or wrapper methods. What are the differences (Chandrashekar and Sahin 2014)? Filtering: An external algorithm computes a rank of the variables (e.g. based on the correlation to the response). Then, features are subsetted by a certain criteria, e.g. an absolute number or a percentage of the number of variables. The selected features will then be used to fit a model (with optional hyperparameters selected by tuning). This calculation is usually cheaper than “feature subset selection” in terms of computation time. Wrapper Methods: Here, no ranking of features is done. Features are selected by a (random) subset of the data. Then, we fit a model and subsequently assess the performance. This is done for a lot of feature combinations in a cross-validation (CV) setting and the best combination is reported. This method is very computationally intensive as a lot of models are fitted. Also, strictly speaking all these models would need to be tuned before the performance is estimated. This would require an additional nested level in a CV setting. After undertaken all of these steps, the selected subset of features is again fitted (with optional hyperparameters selected by tuning). There is also a third approach which can be attributed to the “filter” family: The embedded feature-selection methods of some Learner. Read more about how to use these in section embedded feature-selection methods. Ensemble filters built upon the idea of stacking single filter methods. These are not yet implemented. All functionality that is related to feature selection is implemented via the extension package mlr3filters. 3.2.1 Filters Filter methods assign an importance value to each feature. Based on these values the features can be ranked. Thereafter, we are able to select a feature subset. There is a list of all implemented filter methods in the Appendix. 3.2.2 Calculating filter values Currently, only classification and regression tasks are supported. The first step it to create a new R object using the class of the desired filter method. Each object of class Filter has a .$calculate() method which calculates the filter values and ranks them in a descending order. library(&quot;mlr3filters&quot;) filter = FilterJMIM$new() task = tsk(&quot;iris&quot;) filter$calculate(task) as.data.table(filter) ## # A tibble: 4 x 2 ## feature score ## &lt;chr&gt; &lt;dbl&gt; ## 1 Sepal.Length 1.04 ## 2 Petal.Width 0.989 ## 3 Petal.Length 0.988 ## 4 Sepal.Width 0.831 Some filters support changing specific hyperparameters. This is done similar to setting hyperparameters of a Learner using .$param_set$values: filter_cor = FilterCorrelation$new() filter_cor$param_set ## ParamSet: ## id class lower upper ## 1: use ParamFct NA NA ## 2: method ParamFct NA NA ## levels ## 1: everything,all.obs,complete.obs,na.or.complete,pairwise.complete.obs ## 2: pearson,kendall,spearman ## default value ## 1: everything ## 2: pearson # change parameter &#39;method&#39; filter_cor$param_set$values = list(method = &quot;spearman&quot;) filter_cor$param_set ## ParamSet: ## id class lower upper ## 1: use ParamFct NA NA ## 2: method ParamFct NA NA ## levels ## 1: everything,all.obs,complete.obs,na.or.complete,pairwise.complete.obs ## 2: pearson,kendall,spearman ## default value ## 1: everything ## 2: pearson spearman Rather than taking the “long” R6 way to create a filter, there is also a built-in shorthand notation for filter creation: filter = flt(&quot;cmim&quot;) filter ## &lt;FilterCMIM:cmim&gt; ## Task Types: classif, regr ## Task Properties: - ## Packages: praznik ## Feature types: integer, numeric, factor, ordered 3.2.3 Variable Importance Filters All Learner with the property “importance” come with integrated feature selection methods. You can find a list of all learners with this property in the Appendix. For some learners the desired filter method needs to be set during learner creation. For example, learner classif.ranger (in the package mlr3learners) comes with multiple integrated methods. See the help page of ranger::ranger. To use method “impurity”, you need to set the filter method during construction. library(&quot;mlr3learners&quot;) lrn = lrn(&quot;classif.ranger&quot;, importance = &quot;impurity&quot;) Now you can use the mlr3filters::FilterImportance class for algorithm-embedded methods to filter a Task. library(&quot;mlr3learners&quot;) task = tsk(&quot;iris&quot;) filter = flt(&quot;importance&quot;, learner = lrn) filter$calculate(task) head(as.data.table(filter), 3) ## # A tibble: 3 x 2 ## feature score ## &lt;chr&gt; &lt;dbl&gt; ## 1 Petal.Length 43.8 ## 2 Petal.Width 42.6 ## 3 Sepal.Length 10.4 3.2.4 Ensemble Methods Work in progress. 3.2.5 Wrapper Methods Work in progress - via package mlr3fswrap References "],
["nested-resampling.html", "3.3 Nested Resampling", " 3.3 Nested Resampling In order to obtain unbiased performance estimates for learners, all parts of the model building (preprocessing and model selection steps) should be included in the resampling, i.e., repeated for every pair of training/test data. For steps that themselves require resampling like hyperparameter tuning or feature-selection (via the wrapper approach) this results in two nested resampling loops. The graphic above illustrates nested resampling for parameter tuning with 3-fold cross-validation in the outer and 4-fold cross-validation in the inner loop. In the outer resampling loop, we have three pairs of training/test sets. On each of these outer training sets parameter tuning is done, thereby executing the inner resampling loop. This way, we get one set of selected hyperparameters for each outer training set. Then the learner is fitted on each outer training set using the corresponding selected hyperparameters. Subsequently, we can evaluate the performance of the learner on the outer test sets. In mlr3, you can run nested resampling for free without programming any loops by using the mlr3tuning::AutoTuner class. This works as follows: Generate a wrapped Learner via class mlr3tuning::AutoTuner or mlr3filters::AutoSelect (not yet implemented). Specify all required settings - see section “Automating the Tuning” for help. Call function resample() or benchmark() with the created Learner. You can freely combine different inner and outer resampling strategies. A common setup is prediction and performance evaluation on a fixed outer test set. This can be achieved by passing the Resampling strategy (rsmp(&quot;holdout&quot;)) as the outer resampling instance to either resample() or benchmark(). The inner resampling strategy could be a cross-validation one (rsmp(&quot;cv&quot;)) as the sizes of the outer training sets might differ. Per default, the inner resample description is instantiated once for every outer training set. Note that nested resampling is computationally expensive. For this reason we use relatively small search spaces and a low number of resampling iterations in the examples shown below. In practice, you normally have to increase both. As this is computationally intensive you might want to have a look at the section on Parallelization. 3.3.1 Execution To optimize hyperparameters or conduct feature selection in a nested resampling you need to create learners using either: the AutoTuner class, or the mlr3filters::AutoSelect class (not yet implemented) We use the example from section “Automating the Tuning” and pipe the resulting learner into a resample() call. library(&quot;mlr3tuning&quot;) task = tsk(&quot;iris&quot;) learner = lrn(&quot;classif.rpart&quot;) resampling = rsmp(&quot;holdout&quot;) measures = msr(&quot;classif.ce&quot;) param_set = paradox::ParamSet$new( params = list(paradox::ParamDbl$new(&quot;cp&quot;, lower = 0.001, upper = 0.1))) terminator = term(&quot;evals&quot;, n_evals = 5) tuner = tnr(&quot;grid_search&quot;, resolution = 10) at = AutoTuner$new(learner, resampling, measures = measures, param_set, terminator, tuner = tuner) Now construct the resample() call: resampling_outer = rsmp(&quot;cv&quot;, folds = 3) rr = resample(task = task, learner = at, resampling = resampling_outer) 3.3.2 Evaluation With the created ResampleResult we can now inspect the executed resampling iterations more closely. See the section on Resampling for more detailed information about ResampleResult objects. For example, we can query the aggregated performance result: rr$aggregate() ## classif.ce ## 0.05333 Check for any errors in the folds during execution (if there is not output, warnings or errors recorded, this is an empty data.table(): rr$errors ## # A tibble: 0 x 2 ## # … with 2 variables: iteration &lt;int&gt;, msg &lt;chr&gt; Or take a look at the confusion matrix of the joined predictions: rr$prediction()$confusion ## truth ## response setosa versicolor virginica ## setosa 50 0 0 ## versicolor 0 48 6 ## virginica 0 2 44 "],
["pipelines.html", "4 Pipelines", " 4 Pipelines mlr3pipelines is a dataflow programming toolkit. This chapter focuses on the applicant’s side of the package. A more in-depth and technically oriented vignette can be found in the mlr3pipeline vignette. Machine learning workflows can be written as directed “Graphs”/“Pipelines” that represent data flows between preprocessing, model fitting, and ensemble learning units in an expressive and intuitive language. We will most often use the term “Graph” in this manual but it can interchangeably be used with “pipeline” or “workflow”. An example for such a graph can be found below: Single computational steps can be represented as so-called PipeOps, which can then be connected with directed edges in a Graph. The scope of mlr3pipelines is still growing. Currently supported features are: Data manipulation and preprocessing operations, e.g. PCA, feature filtering, imputation Task subsampling for speed and outcome class imbalance handling mlr3 Learner operations for prediction and stacking Ensemble methods and aggregation of predictions Additionally, we implement several meta operators that can be used to construct powerful pipelines: Simultaneous path branching (data going both ways) Alternative path branching (data going one specific way, controlled by hyperparameters) An extensive introduction to creating custom PipeOps (PO’s) can be found in the technical introduction. Using methods from mlr3tuning, it is even possible to simultaneously optimize parameters of multiple processing units. A predecessor to this package is the mlrCPO package, which works with mlr 2.x. Other packages that provide, to varying degree, some preprocessing functionality or machine learning domain specific language, are: the caret package and the related recipes project the dplyr package An example for a Pipeline that can be constructed using mlr3pipelines is depicted below: "],
["the-building-blocks-pipeops.html", "4.1 The Building Blocks: PipeOps", " 4.1 The Building Blocks: PipeOps The building blocks of mlr3pipelines are PipeOp-objects (PO). They can be constructed directly using PipeOp&lt;NAME&gt;$new(), but the recommended way is to retrieve them from the mlr_pipeops dictionary: library(&quot;mlr3pipelines&quot;) as.data.table(mlr_pipeops) ## # A tibble: 42 x 8 ## key packages input.num output.num input.type.train input.type.pred… ## &lt;chr&gt; &lt;list&gt; &lt;int&gt; &lt;int&gt; &lt;list&gt; &lt;list&gt; ## 1 boxc… &lt;chr [1… 1 1 &lt;chr [1]&gt; &lt;chr [1]&gt; ## 2 bran… &lt;chr [0… 1 NA &lt;chr [1]&gt; &lt;chr [1]&gt; ## 3 chunk &lt;chr [0… 1 NA &lt;chr [1]&gt; &lt;chr [1]&gt; ## 4 clas… &lt;chr [0… 1 1 &lt;chr [1]&gt; &lt;chr [1]&gt; ## 5 clas… &lt;chr [1… NA 1 &lt;chr [1]&gt; &lt;chr [1]&gt; ## 6 clas… &lt;chr [0… 1 1 &lt;chr [1]&gt; &lt;chr [1]&gt; ## 7 cola… &lt;chr [0… 1 1 &lt;chr [1]&gt; &lt;chr [1]&gt; ## 8 coll… &lt;chr [0… 1 1 &lt;chr [1]&gt; &lt;chr [1]&gt; ## 9 copy &lt;chr [0… 1 NA &lt;chr [1]&gt; &lt;chr [1]&gt; ## 10 enco… &lt;chr [1… 1 1 &lt;chr [1]&gt; &lt;chr [1]&gt; ## # … with 32 more rows, and 2 more variables: output.type.train &lt;list&gt;, ## # output.type.predict &lt;list&gt; Single POs can be created using mlr_pipeops$get(&lt;name&gt;): pca = mlr_pipeops$get(&quot;pca&quot;) or using syntactic sugar: pca = po(&quot;pca&quot;) Some POs require additional arguments for construction: learner = mlr_pipeops$get(&quot;learner&quot;) # Error in as_learner(learner) : argument &quot;learner&quot; is missing, with no default argument &quot;learner&quot; is missing, with no default learner = mlr_pipeops$get(&quot;learner&quot;, mlr_learners$get(&quot;classif.rpart&quot;)) or in short po(&quot;learner&quot;, lrn(&quot;classif.rpart&quot;)). Hyperparameters of POs can be set through the param_vals argument. Here we set the fraction of features for a filter: filter = mlr_pipeops$get(&quot;filter&quot;, filter = mlr3filters::FilterVariance$new(), param_vals = list(filter.frac = 0.5)) or in short notation: po(&quot;filter&quot;, mlr3filters::FilterVariance$new(), filter.frac = 0.5) The figure below shows an exemplary PipeOp. It takes an input, transforms it during .$train and .$predict and returns data: knitr::include_graphics(&quot;images/po_viz.png&quot;) "],
["pipe-operator.html", "4.2 The Pipeline Operator: %&gt;&gt;%", " 4.2 The Pipeline Operator: %&gt;&gt;% Although it is possible to create intricate Graphs with edges going all over the place (as long as no loops are introduced), there is usually a clear direction of flow between “layers” in the Graph. It is therefore convenient to build up a Graph from layers. This can be done using the %&gt;&gt;% (“double-arrow”) operator. It takes either a PipeOp or a Graph on each of its sides and connects all of the outputs of its left-hand side to one of the inputs each of its right-hand side. The number of inputs therefore must match the number of outputs. gr = mlr_pipeops$get(&quot;scale&quot;) %&gt;&gt;% mlr_pipeops$get(&quot;pca&quot;) gr$plot(html = TRUE) %&gt;% visInteraction(zoomView = FALSE) # disable zoom "],
["pipe-nodes-edges-graphs.html", "4.3 Nodes, Edges and Graphs", " 4.3 Nodes, Edges and Graphs POs are combined into Graphs. The manual way (= hard way) to construct a Graph is to create an empty graph first. Then one fills the empty graph with POs, and connects edges between the POs. POs are identified by their $id. Note that the operations all modify the object in-place and return the object itself. Therefore, multiple modifications can be chained. For this example we use the pca PO defined above and a new PO named “mutate”. The latter creates a new feature from existing variables. mutate = mlr_pipeops$get(&quot;mutate&quot;) graph = Graph$new()$ add_pipeop(mutate)$ add_pipeop(filter)$ add_edge(&quot;mutate&quot;, &quot;variance&quot;) # add connection mutate -&gt; filter The much quicker way is to use the %&gt;&gt;% operator to chain POs or Graph s. The same result as above can be achieved by doing the following: graph = mutate %&gt;&gt;% filter Now the Graph can be inspected using its $plot() function: graph$plot(html = TRUE) %&gt;% visInteraction(zoomView = FALSE) # disable zoom Chaining multiple POs of the same kind If multiple POs of the same kind should be chained, it is necessary to change the id to avoid name clashes. This can be done by either accessing the $id slot or during construction: graph$add_pipeop(mlr_pipeops$get(&quot;pca&quot;)) graph$add_pipeop(mlr_pipeops$get(&quot;pca&quot;, id = &quot;pca2&quot;)) "],
["pipe-modeling.html", "4.4 Modeling", " 4.4 Modeling The main purpose of a Graph is to build combined preprocessing and model fitting pipelines that can be used as mlr3 Learner. In the following we chain two preprocessing tasks: mutate (creation of a new feature) filter (filtering the dataset) and then chain a PO learner to train and predict on the modified dataset. graph = mutate %&gt;&gt;% filter %&gt;&gt;% mlr_pipeops$get(&quot;learner&quot;, learner = mlr_learners$get(&quot;classif.rpart&quot;)) Until here we defined the main pipeline stored in Graph. Now we can train and predict the pipeline: task = mlr_tasks$get(&quot;iris&quot;) graph$train(task) ## $classif.rpart.output ## NULL graph$predict(task) ## $classif.rpart.output ## &lt;PredictionClassif&gt; for 150 observations: ## row_id truth response ## 1 setosa setosa ## 2 setosa setosa ## 3 setosa setosa ## --- ## 148 virginica virginica ## 149 virginica virginica ## 150 virginica virginica Rather than calling $train() and $predict() manually, we can put the pipeline Graph into a GraphLearner object. A GraphLearner encapsulates the whole pipeline (including the preprocessing steps) and can be put into resample() or benchmark() . If you are familiar with the old mlr package, this is the equivalent of all the make*Wrapper() functions. The pipeline being encapsulated (here Graph ) must always produce a Prediction with its $predict() call, so it will probably contain at least one PipeOpLearner . glrn = GraphLearner$new(graph) This learner can be used for model fitting, resampling, benchmarking, and tuning: cv3 = rsmp(&quot;cv&quot;, folds = 3) resample(task, glrn, cv3) ## &lt;ResampleResult&gt; of 3 iterations ## * Task: iris ## * Learner: mutate.variance.classif.rpart ## * Warnings: 0 in 0 iterations ## * Errors: 0 in 0 iterations 4.4.1 Setting Hyperparameters Individual POs offer hyperparameters because they contain $param_set slots that can be read and written from $param_set$values (via the paradox package). The parameters get passed down to the Graph, and finally to the GraphLearner . This makes it not only possible to easily change the behavior of a Graph / GraphLearner and try different settings manually, but also to perform tuning using the mlr3tuning package. glrn$param_set$values$variance.filter.frac = 0.25 cv3 = rsmp(&quot;cv&quot;, folds = 3) resample(task, glrn, cv3) ## &lt;ResampleResult&gt; of 3 iterations ## * Task: iris ## * Learner: mutate.variance.classif.rpart ## * Warnings: 0 in 0 iterations ## * Errors: 0 in 0 iterations 4.4.2 Tuning If you are unfamiliar with tuning in mlr3, we recommend to take a look at the section about tuning first. Here we define a ParamSet for the “rpart” learner and the “variance” filter which should be optimized during tuning. library(&quot;paradox&quot;) ps = ParamSet$new(list( ParamDbl$new(&quot;classif.rpart.cp&quot;, lower = 0, upper = 0.05), ParamDbl$new(&quot;variance.filter.frac&quot;, lower = 0.25, upper = 1) )) After having defined the PerformanceEvaluator, a random search with 10 iterations is created. For the inner resampling, we are simply doing holdout (single split into train/test) to keep the runtimes reasonable. library(&quot;mlr3tuning&quot;) instance = TuningInstance$new( task = task, learner = glrn, resampling = rsmp(&quot;holdout&quot;), measures = msr(&quot;classif.ce&quot;), param_set = ps, terminator = term(&quot;evals&quot;, n_evals = 20) ) tuner = TunerRandomSearch$new() tuner$tune(instance) The tuning result can be found in the result slot. instance$result "],
